svm_type c_svc
kernel_type polynomial
degree 2
gamma 0.25
coef0 0
nr_class 3
total_sv 16
rho 1.2209413262671844 -4.345675208694856 -1.3045294743166218
label 1 0 2
nr_sv 6 4 6
SV
0 0.36475867757600877 1:5.4 2:3 3:4.5 4:1.5 
0 1 1:6.7 2:3 3:5 4:1.7 
0 1 1:5.9 2:3.2 3:4.8 4:1.8 
0.14515005967131983 0 1:5.1 2:2.5 3:3 4:1.1 
0 1 1:6 2:2.7 3:5.1 4:1.6 
0 1 1:6.2 2:2.2 3:4.5 4:1.5 
-0.13546968935390727 0.0092636250413896271 1:5.1 2:3.3 3:1.7 4:0.5 
-0 0.017018595218838539 1:4.8 2:3.4 3:1.9 4:0.2 
-0 0.006966878409920366 1:5.1 2:3.8 3:1.9 4:0.4 
-0.0096803703174125569 0 1:4.5 2:2.3 3:1.3 4:0.3 
-1 -0 1:6.2 2:2.8 3:4.8 4:1.8 
-0.60200972623676607 -0.033249098670148532 1:4.9 2:2.5 3:4.5 4:1.7 
-0.36859512163663888 -0 1:6 2:2.2 3:5 4:1.5 
-1 -0 1:6.3 2:2.7 3:4.9 4:1.8 
-1 -0 1:6 2:3 3:4.8 4:1.8 
-0.39415382970260482 -0 1:7.2 2:3 3:5.8 4:1.6 
